digraph Tree {
node [shape=box, style="filled, rounded", color="black", fontname=helvetica] ;
edge [fontname=helvetica] ;
0 [label="koi_fpflag_ss <= 0.53\nentropy = 1.51\nsamples = 6390\nvalue = [1445, 1833, 3112]\nclass = FALSE POSITIVE", fillcolor="#8139e548"] ;
1 [label="koi_fpflag_co <= 0.66\nentropy = 1.58\nsamples = 4683\nvalue = [1444, 1820, 1419]\nclass = CANDIDATE", fillcolor="#39e5811e"] ;
0 -> 1 [labeldistance=2.5, labelangle=45, headlabel="True"] ;
2 [label="koi_fpflag_nt <= 1.3\nentropy = 1.43\nsamples = 3790\nvalue = [1444, 1820, 526]\nclass = CANDIDATE", fillcolor="#39e58129"] ;
1 -> 2 ;
3 [label="koi_max_mult_ev <= -0.24\nentropy = 1.13\nsamples = 3346\nvalue = [1443, 1820, 83]\nclass = CANDIDATE", fillcolor="#39e58133"] ;
2 -> 3 ;
4 [label="koi_fpflag_ec <= 1.07\nentropy = 0.86\nsamples = 993\nvalue = [805, 140, 48]\nclass = CONFIRMED", fillcolor="#e58139c7"] ;
3 -> 4 ;
5 [label="koi_max_mult_ev <= -0.25\nentropy = 0.61\nsamples = 945\nvalue = [805, 140, 0]\nclass = CONFIRMED", fillcolor="#e58139d3"] ;
4 -> 5 ;
6 [label="koi_tce_plnt_num <= 0.41\nentropy = 0.24\nsamples = 568\nvalue = [546, 22, 0]\nclass = CONFIRMED", fillcolor="#e58139f5"] ;
5 -> 6 ;
7 [label="koi_insol <= -0.05\nentropy = 0.08\nsamples = 380\nvalue = [376, 4, 0]\nclass = CONFIRMED", fillcolor="#e58139fc"] ;
6 -> 7 ;
8 [label="koi_model_snr <= -0.33\nentropy = 0.54\nsamples = 16\nvalue = [14, 2, 0]\nclass = CONFIRMED", fillcolor="#e58139db"] ;
7 -> 8 ;
9 [label="entropy = 0.0\nsamples = 13\nvalue = [13, 0, 0]\nclass = CONFIRMED", fillcolor="#e58139ff"] ;
8 -> 9 ;
10 [label="entropy = 0.92\nsamples = 3\nvalue = [1, 2, 0]\nclass = CANDIDATE", fillcolor="#39e5817f"] ;
8 -> 10 ;
11 [label="koi_max_mult_ev <= -0.25\nentropy = 0.05\nsamples = 364\nvalue = [362, 2, 0]\nclass = CONFIRMED", fillcolor="#e58139fe"] ;
7 -> 11 ;
12 [label="entropy = 0.0\nsamples = 304\nvalue = [304, 0, 0]\nclass = CONFIRMED", fillcolor="#e58139ff"] ;
11 -> 12 ;
13 [label="koi_fwm_srao <= 0.08\nentropy = 0.21\nsamples = 60\nvalue = [58, 2, 0]\nclass = CONFIRMED", fillcolor="#e58139f6"] ;
11 -> 13 ;
14 [label="entropy = 0.0\nsamples = 49\nvalue = [49, 0, 0]\nclass = CONFIRMED", fillcolor="#e58139ff"] ;
13 -> 14 ;
15 [label="entropy = 0.68\nsamples = 11\nvalue = [9, 2, 0]\nclass = CONFIRMED", fillcolor="#e58139c6"] ;
13 -> 15 ;
16 [label="koi_max_mult_ev <= -0.25\nentropy = 0.46\nsamples = 188\nvalue = [170, 18, 0]\nclass = CONFIRMED", fillcolor="#e58139e4"] ;
6 -> 16 ;
17 [label="koi_fwm_stat_sig <= 0.41\nentropy = 0.2\nsamples = 131\nvalue = [127, 4, 0]\nclass = CONFIRMED", fillcolor="#e58139f7"] ;
16 -> 17 ;
18 [label="entropy = 0.0\nsamples = 83\nvalue = [83, 0, 0]\nclass = CONFIRMED", fillcolor="#e58139ff"] ;
17 -> 18 ;
19 [label="koi_fwm_sdec <= 0.41\nentropy = 0.41\nsamples = 48\nvalue = [44, 4, 0]\nclass = CONFIRMED", fillcolor="#e58139e8"] ;
17 -> 19 ;
20 [label="entropy = 0.0\nsamples = 28\nvalue = [28, 0, 0]\nclass = CONFIRMED", fillcolor="#e58139ff"] ;
19 -> 20 ;
21 [label="entropy = 0.72\nsamples = 20\nvalue = [16, 4, 0]\nclass = CONFIRMED", fillcolor="#e58139bf"] ;
19 -> 21 ;
22 [label="koi_dor <= -0.16\nentropy = 0.8\nsamples = 57\nvalue = [43, 14, 0]\nclass = CONFIRMED", fillcolor="#e58139ac"] ;
16 -> 22 ;
23 [label="koi_max_sngle_ev <= -0.23\nentropy = 0.32\nsamples = 34\nvalue = [32, 2, 0]\nclass = CONFIRMED", fillcolor="#e58139ef"] ;
22 -> 23 ;
24 [label="entropy = 0.97\nsamples = 5\nvalue = [3, 2, 0]\nclass = CONFIRMED", fillcolor="#e5813955"] ;
23 -> 24 ;
25 [label="entropy = 0.0\nsamples = 29\nvalue = [29, 0, 0]\nclass = CONFIRMED", fillcolor="#e58139ff"] ;
23 -> 25 ;
26 [label="koi_sma <= 0.01\nentropy = 1.0\nsamples = 23\nvalue = [11, 12, 0]\nclass = CANDIDATE", fillcolor="#39e58115"] ;
22 -> 26 ;
27 [label="entropy = 0.47\nsamples = 10\nvalue = [1, 9, 0]\nclass = CANDIDATE", fillcolor="#39e581e3"] ;
26 -> 27 ;
28 [label="entropy = 0.78\nsamples = 13\nvalue = [10, 3, 0]\nclass = CONFIRMED", fillcolor="#e58139b3"] ;
26 -> 28 ;
29 [label="koi_tce_plnt_num <= 0.41\nentropy = 0.9\nsamples = 377\nvalue = [259, 118, 0]\nclass = CONFIRMED", fillcolor="#e581398b"] ;
5 -> 29 ;
30 [label="koi_bin_oedp_sig <= 0.94\nentropy = 0.81\nsamples = 269\nvalue = [202, 67, 0]\nclass = CONFIRMED", fillcolor="#e58139aa"] ;
29 -> 30 ;
31 [label="koi_smass <= -1.5\nentropy = 0.87\nsamples = 219\nvalue = [155, 64, 0]\nclass = CONFIRMED", fillcolor="#e5813996"] ;
30 -> 31 ;
32 [label="entropy = 0.0\nsamples = 5\nvalue = [0, 5, 0]\nclass = CANDIDATE", fillcolor="#39e581ff"] ;
31 -> 32 ;
33 [label="koi_srho <= 0.24\nentropy = 0.85\nsamples = 214\nvalue = [155, 59, 0]\nclass = CONFIRMED", fillcolor="#e581399e"] ;
31 -> 33 ;
34 [label="entropy = 0.88\nsamples = 195\nvalue = [136, 59, 0]\nclass = CONFIRMED", fillcolor="#e5813990"] ;
33 -> 34 ;
35 [label="entropy = 0.0\nsamples = 19\nvalue = [19, 0, 0]\nclass = CONFIRMED", fillcolor="#e58139ff"] ;
33 -> 35 ;
36 [label="koi_prad <= -0.08\nentropy = 0.33\nsamples = 50\nvalue = [47, 3, 0]\nclass = CONFIRMED", fillcolor="#e58139ef"] ;
30 -> 36 ;
37 [label="koi_srho <= -0.05\nentropy = 0.67\nsamples = 17\nvalue = [14, 3, 0]\nclass = CONFIRMED", fillcolor="#e58139c8"] ;
36 -> 37 ;
38 [label="entropy = 0.99\nsamples = 7\nvalue = [4, 3, 0]\nclass = CONFIRMED", fillcolor="#e5813940"] ;
37 -> 38 ;
39 [label="entropy = 0.0\nsamples = 10\nvalue = [10, 0, 0]\nclass = CONFIRMED", fillcolor="#e58139ff"] ;
37 -> 39 ;
40 [label="entropy = 0.0\nsamples = 33\nvalue = [33, 0, 0]\nclass = CONFIRMED", fillcolor="#e58139ff"] ;
36 -> 40 ;
41 [label="koi_time0 <= -0.44\nentropy = 1.0\nsamples = 108\nvalue = [57, 51, 0]\nclass = CONFIRMED", fillcolor="#e581391b"] ;
29 -> 41 ;
42 [label="entropy = 0.0\nsamples = 16\nvalue = [16, 0, 0]\nclass = CONFIRMED", fillcolor="#e58139ff"] ;
41 -> 42 ;
43 [label="koi_smet <= -0.52\nentropy = 0.99\nsamples = 92\nvalue = [41, 51, 0]\nclass = CANDIDATE", fillcolor="#39e58132"] ;
41 -> 43 ;
44 [label="entropy = 0.0\nsamples = 8\nvalue = [0, 8, 0]\nclass = CANDIDATE", fillcolor="#39e581ff"] ;
43 -> 44 ;
45 [label="koi_model_snr <= -0.33\nentropy = 1.0\nsamples = 84\nvalue = [41, 43, 0]\nclass = CANDIDATE", fillcolor="#39e5810c"] ;
43 -> 45 ;
46 [label="entropy = 0.59\nsamples = 14\nvalue = [12, 2, 0]\nclass = CONFIRMED", fillcolor="#e58139d4"] ;
45 -> 46 ;
47 [label="entropy = 0.98\nsamples = 70\nvalue = [29, 41, 0]\nclass = CANDIDATE", fillcolor="#39e5814b"] ;
45 -> 47 ;
48 [label="entropy = 0.0\nsamples = 48\nvalue = [0, 0, 48]\nclass = FALSE POSITIVE", fillcolor="#8139e5ff"] ;
4 -> 48 ;
49 [label="koi_fpflag_ec <= 1.07\nentropy = 0.95\nsamples = 2353\nvalue = [638, 1680, 35]\nclass = CANDIDATE", fillcolor="#39e5819b"] ;
3 -> 49 ;
50 [label="koi_impact <= 0.42\nentropy = 0.85\nsamples = 2319\nvalue = [638, 1680, 1]\nclass = CANDIDATE", fillcolor="#39e5819e"] ;
49 -> 50 ;
51 [label="koi_srho <= 0.2\nentropy = 0.82\nsamples = 2240\nvalue = [569, 1670, 1]\nclass = CANDIDATE", fillcolor="#39e581a8"] ;
50 -> 51 ;
52 [label="koi_max_mult_ev <= -0.24\nentropy = 0.77\nsamples = 2035\nvalue = [450, 1584, 1]\nclass = CANDIDATE", fillcolor="#39e581b6"] ;
51 -> 52 ;
53 [label="koi_fwm_sra <= 0.39\nentropy = 0.96\nsamples = 381\nvalue = [148, 233, 0]\nclass = CANDIDATE", fillcolor="#39e5815d"] ;
52 -> 53 ;
54 [label="koi_tce_plnt_num <= 1.98\nentropy = 0.89\nsamples = 247\nvalue = [76, 171, 0]\nclass = CANDIDATE", fillcolor="#39e5818e"] ;
53 -> 54 ;
55 [label="entropy = 0.94\nsamples = 205\nvalue = [74, 131, 0]\nclass = CANDIDATE", fillcolor="#39e5816f"] ;
54 -> 55 ;
56 [label="entropy = 0.28\nsamples = 42\nvalue = [2, 40, 0]\nclass = CANDIDATE", fillcolor="#39e581f2"] ;
54 -> 56 ;
57 [label="koi_fwm_sdec <= -0.95\nentropy = 1.0\nsamples = 134\nvalue = [72, 62, 0]\nclass = CONFIRMED", fillcolor="#e5813923"] ;
53 -> 57 ;
58 [label="entropy = 0.68\nsamples = 28\nvalue = [23, 5, 0]\nclass = CONFIRMED", fillcolor="#e58139c8"] ;
57 -> 58 ;
59 [label="entropy = 1.0\nsamples = 106\nvalue = [49, 57, 0]\nclass = CANDIDATE", fillcolor="#39e58124"] ;
57 -> 59 ;
60 [label="koi_impact <= 0.33\nentropy = 0.69\nsamples = 1654\nvalue = [302, 1351, 1]\nclass = CANDIDATE", fillcolor="#39e581c6"] ;
52 -> 60 ;
61 [label="koi_time0 <= 0.77\nentropy = 0.62\nsamples = 1466\nvalue = [223, 1242, 1]\nclass = CANDIDATE", fillcolor="#39e581d1"] ;
60 -> 61 ;
62 [label="entropy = 0.56\nsamples = 1346\nvalue = [174, 1171, 1]\nclass = CANDIDATE", fillcolor="#39e581d9"] ;
61 -> 62 ;
63 [label="entropy = 0.98\nsamples = 120\nvalue = [49, 71, 0]\nclass = CANDIDATE", fillcolor="#39e5814f"] ;
61 -> 63 ;
64 [label="koi_ror <= -0.16\nentropy = 0.98\nsamples = 188\nvalue = [79, 109, 0]\nclass = CANDIDATE", fillcolor="#39e58146"] ;
60 -> 64 ;
65 [label="entropy = 0.89\nsamples = 147\nvalue = [45, 102, 0]\nclass = CANDIDATE", fillcolor="#39e5818e"] ;
64 -> 65 ;
66 [label="entropy = 0.66\nsamples = 41\nvalue = [34, 7, 0]\nclass = CONFIRMED", fillcolor="#e58139ca"] ;
64 -> 66 ;
67 [label="koi_steff <= -0.31\nentropy = 0.98\nsamples = 205\nvalue = [119, 86, 0]\nclass = CONFIRMED", fillcolor="#e5813947"] ;
51 -> 67 ;
68 [label="koi_max_mult_ev <= -0.24\nentropy = 0.99\nsamples = 123\nvalue = [53, 70, 0]\nclass = CANDIDATE", fillcolor="#39e5813e"] ;
67 -> 68 ;
69 [label="koi_fwm_prao <= 0.01\nentropy = 0.92\nsamples = 54\nvalue = [36, 18, 0]\nclass = CONFIRMED", fillcolor="#e581397f"] ;
68 -> 69 ;
70 [label="entropy = 0.83\nsamples = 49\nvalue = [36, 13, 0]\nclass = CONFIRMED", fillcolor="#e58139a3"] ;
69 -> 70 ;
71 [label="entropy = 0.0\nsamples = 5\nvalue = [0, 5, 0]\nclass = CANDIDATE", fillcolor="#39e581ff"] ;
69 -> 71 ;
72 [label="koi_prad <= -0.08\nentropy = 0.81\nsamples = 69\nvalue = [17, 52, 0]\nclass = CANDIDATE", fillcolor="#39e581ac"] ;
68 -> 72 ;
73 [label="entropy = 0.26\nsamples = 45\nvalue = [2, 43, 0]\nclass = CANDIDATE", fillcolor="#39e581f3"] ;
72 -> 73 ;
74 [label="entropy = 0.95\nsamples = 24\nvalue = [15, 9, 0]\nclass = CONFIRMED", fillcolor="#e5813966"] ;
72 -> 74 ;
75 [label="koi_smet <= 0.87\nentropy = 0.71\nsamples = 82\nvalue = [66, 16, 0]\nclass = CONFIRMED", fillcolor="#e58139c1"] ;
67 -> 75 ;
76 [label="koi_insol <= -0.05\nentropy = 0.5\nsamples = 63\nvalue = [56, 7, 0]\nclass = CONFIRMED", fillcolor="#e58139df"] ;
75 -> 76 ;
77 [label="entropy = 0.69\nsamples = 38\nvalue = [31, 7, 0]\nclass = CONFIRMED", fillcolor="#e58139c5"] ;
76 -> 77 ;
78 [label="entropy = 0.0\nsamples = 25\nvalue = [25, 0, 0]\nclass = CONFIRMED", fillcolor="#e58139ff"] ;
76 -> 78 ;
79 [label="koi_model_snr <= -0.32\nentropy = 1.0\nsamples = 19\nvalue = [10, 9, 0]\nclass = CONFIRMED", fillcolor="#e5813919"] ;
75 -> 79 ;
80 [label="entropy = 0.0\nsamples = 5\nvalue = [5, 0, 0]\nclass = CONFIRMED", fillcolor="#e58139ff"] ;
79 -> 80 ;
81 [label="entropy = 0.94\nsamples = 14\nvalue = [5, 9, 0]\nclass = CANDIDATE", fillcolor="#39e58171"] ;
79 -> 81 ;
82 [label="koi_ror <= -0.17\nentropy = 0.55\nsamples = 79\nvalue = [69, 10, 0]\nclass = CONFIRMED", fillcolor="#e58139da"] ;
50 -> 82 ;
83 [label="koi_model_snr <= -0.32\nentropy = 0.95\nsamples = 19\nvalue = [12, 7, 0]\nclass = CONFIRMED", fillcolor="#e581396a"] ;
82 -> 83 ;
84 [label="koi_slogg <= -0.19\nentropy = 0.72\nsamples = 15\nvalue = [12, 3, 0]\nclass = CONFIRMED", fillcolor="#e58139bf"] ;
83 -> 84 ;
85 [label="entropy = 0.81\nsamples = 4\nvalue = [1, 3, 0]\nclass = CANDIDATE", fillcolor="#39e581aa"] ;
84 -> 85 ;
86 [label="entropy = 0.0\nsamples = 11\nvalue = [11, 0, 0]\nclass = CONFIRMED", fillcolor="#e58139ff"] ;
84 -> 86 ;
87 [label="entropy = 0.0\nsamples = 4\nvalue = [0, 4, 0]\nclass = CANDIDATE", fillcolor="#39e581ff"] ;
83 -> 87 ;
88 [label="koi_fwm_sdec <= 1.24\nentropy = 0.29\nsamples = 60\nvalue = [57, 3, 0]\nclass = CONFIRMED", fillcolor="#e58139f2"] ;
82 -> 88 ;
89 [label="koi_fwm_sdec <= -1.48\nentropy = 0.13\nsamples = 54\nvalue = [53, 1, 0]\nclass = CONFIRMED", fillcolor="#e58139fa"] ;
88 -> 89 ;
90 [label="entropy = 0.92\nsamples = 3\nvalue = [2, 1, 0]\nclass = CONFIRMED", fillcolor="#e581397f"] ;
89 -> 90 ;
91 [label="entropy = 0.0\nsamples = 51\nvalue = [51, 0, 0]\nclass = CONFIRMED", fillcolor="#e58139ff"] ;
89 -> 91 ;
92 [label="koi_time0 <= -0.12\nentropy = 0.92\nsamples = 6\nvalue = [4, 2, 0]\nclass = CONFIRMED", fillcolor="#e581397f"] ;
88 -> 92 ;
93 [label="entropy = 0.92\nsamples = 3\nvalue = [1, 2, 0]\nclass = CANDIDATE", fillcolor="#39e5817f"] ;
92 -> 93 ;
94 [label="entropy = 0.0\nsamples = 3\nvalue = [3, 0, 0]\nclass = CONFIRMED", fillcolor="#e58139ff"] ;
92 -> 94 ;
95 [label="entropy = 0.0\nsamples = 34\nvalue = [0, 0, 34]\nclass = FALSE POSITIVE", fillcolor="#8139e5ff"] ;
49 -> 95 ;
96 [label="koi_tce_plnt_num <= 5.13\nentropy = 0.02\nsamples = 444\nvalue = [1, 0, 443]\nclass = FALSE POSITIVE", fillcolor="#8139e5fe"] ;
2 -> 96 ;
97 [label="entropy = 0.0\nsamples = 435\nvalue = [0, 0, 435]\nclass = FALSE POSITIVE", fillcolor="#8139e5ff"] ;
96 -> 97 ;
98 [label="koi_dor <= 1.14\nentropy = 0.5\nsamples = 9\nvalue = [1, 0, 8]\nclass = FALSE POSITIVE", fillcolor="#8139e5df"] ;
96 -> 98 ;
99 [label="entropy = 0.0\nsamples = 6\nvalue = [0, 0, 6]\nclass = FALSE POSITIVE", fillcolor="#8139e5ff"] ;
98 -> 99 ;
100 [label="entropy = 0.92\nsamples = 3\nvalue = [1, 0, 2]\nclass = FALSE POSITIVE", fillcolor="#8139e57f"] ;
98 -> 100 ;
101 [label="entropy = 0.0\nsamples = 893\nvalue = [0, 0, 893]\nclass = FALSE POSITIVE", fillcolor="#8139e5ff"] ;
1 -> 101 ;
102 [label="koi_ror <= -0.02\nentropy = 0.07\nsamples = 1707\nvalue = [1, 13, 1693]\nclass = FALSE POSITIVE", fillcolor="#8139e5fd"] ;
0 -> 102 [labeldistance=2.5, labelangle=-45, headlabel="False"] ;
103 [label="koi_model_snr <= 0.89\nentropy = 0.18\nsamples = 453\nvalue = [0, 12, 441]\nclass = FALSE POSITIVE", fillcolor="#8139e5f8"] ;
102 -> 103 ;
104 [label="koi_smet <= 1.93\nentropy = 0.06\nsamples = 433\nvalue = [0, 3, 430]\nclass = FALSE POSITIVE", fillcolor="#8139e5fd"] ;
103 -> 104 ;
105 [label="koi_depth <= -0.05\nentropy = 0.02\nsamples = 428\nvalue = [0, 1, 427]\nclass = FALSE POSITIVE", fillcolor="#8139e5fe"] ;
104 -> 105 ;
106 [label="entropy = 0.0\nsamples = 425\nvalue = [0, 0, 425]\nclass = FALSE POSITIVE", fillcolor="#8139e5ff"] ;
105 -> 106 ;
107 [label="entropy = 0.92\nsamples = 3\nvalue = [0, 1, 2]\nclass = FALSE POSITIVE", fillcolor="#8139e57f"] ;
105 -> 107 ;
108 [label="entropy = 0.97\nsamples = 5\nvalue = [0, 2, 3]\nclass = FALSE POSITIVE", fillcolor="#8139e555"] ;
104 -> 108 ;
109 [label="koi_prad <= -0.02\nentropy = 0.99\nsamples = 20\nvalue = [0, 9, 11]\nclass = FALSE POSITIVE", fillcolor="#8139e52e"] ;
103 -> 109 ;
110 [label="koi_fwm_pdeco <= 0.01\nentropy = 0.89\nsamples = 13\nvalue = [0, 9, 4]\nclass = CANDIDATE", fillcolor="#39e5818e"] ;
109 -> 110 ;
111 [label="koi_srho <= -0.18\nentropy = 0.47\nsamples = 10\nvalue = [0, 9, 1]\nclass = CANDIDATE", fillcolor="#39e581e3"] ;
110 -> 111 ;
112 [label="entropy = 0.92\nsamples = 3\nvalue = [0, 2, 1]\nclass = CANDIDATE", fillcolor="#39e5817f"] ;
111 -> 112 ;
113 [label="entropy = 0.0\nsamples = 7\nvalue = [0, 7, 0]\nclass = CANDIDATE", fillcolor="#39e581ff"] ;
111 -> 113 ;
114 [label="entropy = 0.0\nsamples = 3\nvalue = [0, 0, 3]\nclass = FALSE POSITIVE", fillcolor="#8139e5ff"] ;
110 -> 114 ;
115 [label="entropy = 0.0\nsamples = 7\nvalue = [0, 0, 7]\nclass = FALSE POSITIVE", fillcolor="#8139e5ff"] ;
109 -> 115 ;
116 [label="koi_sma <= -0.62\nentropy = 0.02\nsamples = 1254\nvalue = [1, 1, 1252]\nclass = FALSE POSITIVE", fillcolor="#8139e5ff"] ;
102 -> 116 ;
117 [label="koi_bin_oedp_sig <= 1.08\nentropy = 0.5\nsamples = 9\nvalue = [1, 0, 8]\nclass = FALSE POSITIVE", fillcolor="#8139e5df"] ;
116 -> 117 ;
118 [label="entropy = 0.0\nsamples = 6\nvalue = [0, 0, 6]\nclass = FALSE POSITIVE", fillcolor="#8139e5ff"] ;
117 -> 118 ;
119 [label="entropy = 0.92\nsamples = 3\nvalue = [1, 0, 2]\nclass = FALSE POSITIVE", fillcolor="#8139e57f"] ;
117 -> 119 ;
120 [label="koi_srho <= -0.2\nentropy = 0.01\nsamples = 1245\nvalue = [0, 1, 1244]\nclass = FALSE POSITIVE", fillcolor="#8139e5ff"] ;
116 -> 120 ;
121 [label="koi_srho <= -0.2\nentropy = 0.06\nsamples = 147\nvalue = [0, 1, 146]\nclass = FALSE POSITIVE", fillcolor="#8139e5fd"] ;
120 -> 121 ;
122 [label="entropy = 0.0\nsamples = 144\nvalue = [0, 0, 144]\nclass = FALSE POSITIVE", fillcolor="#8139e5ff"] ;
121 -> 122 ;
123 [label="entropy = 0.92\nsamples = 3\nvalue = [0, 1, 2]\nclass = FALSE POSITIVE", fillcolor="#8139e57f"] ;
121 -> 123 ;
124 [label="entropy = 0.0\nsamples = 1098\nvalue = [0, 0, 1098]\nclass = FALSE POSITIVE", fillcolor="#8139e5ff"] ;
120 -> 124 ;
}